{
  "layers": [
    {
      "opacity": 1.0, 
      "name": "Skirt", 
      "enabled": true, 
      "mask": [], 
      "influences": [
        {
          "index": 0, 
          "weights": [0.9297059733836903, 0.9451761213823822, 0.0, 0.0, 0.0, 0.5119295804488154, 0.4471163094149484, 0.0, 0.0, 0.0, 0.0, 0.9541254111781402, 0.9592654844758223, 0.9603429352547261, 0.9539564185212989, 0.9620278865197798, 0.9557806001483571, 0.9368691991713421, 0.933165407880024, 0.49201780108543014, 0.4766920454408975, 0.4497114756369436, 0.449894211758878, 0.42738455127134506, 0.45770011847639636, 0.4349654654686591, 0.42616002450445234, 0.0, 0.0, 0.0, 0.0, 0.0, 0.0, 0.0, 0.0, 0.0, 0.0, 0.0, 0.0, 0.0, 0.0, 0.0, 0.0, 0.0, 0.0, 0.0, 0.0, 0.0, 0.0, 0.0, 0.0, 0.0, 0.0, 0.0, 0.0, 0.0, 0.0, 0.0, 0.0, 0.9557338273041411, 1.0, 1.0, 0.9472634706319347, 1.0, 0.9606212841346304, 1.0, 0.9617550572144528, 1.0, 0.9557548298758309, 0.9635526293661625, 1.0, 1.0, 0.9573409700822693, 1.0, 0.9390799808296569, 1.0, 0.9356836671427733, 1.0, 0.9319208931688093, 0.0, 1.0, 1.0, 1.0, 1.0, 1.0, 1.0, 1.0, 1.0, 1.0, 1.0, 0.9522845014968104, 1.0, 1.0, 0.9613924329670854, 1.0, 0.9548531389385222, 1.0, 0.953177185295662, 0.9479151680637122, 1.0, 1.0, 0.9474808090866396, 1.0, 0.9376389081827003, 1.0, 0.9337467541185447, 0.9314400672466717, 0.9354195294768254, 0.4662359326544704, 0.4951330771945588, 0.9608635264553494, 0.9500803311223693, 0.4718298628310691, 0.43977046947541276, 0.9523793146841405, 0.4093820738789538, 0.9514420451337029, 0.4595866869332227, 0.9457550419130993, 0.44539211806679324, 0.9461183943936597, 0.4557488642097255, 0.03152632665396948, 0.042631110548815694, 0.05104692074280938, 0.040858145807512264, 0.0, 0.0, 0.0, 0.0, 0.0, 0.0, 0.0, 0.0, 0.006580556799055349, 0.0, 0.0, 0.0, 0.0783839836678555, 0.0, 0.0, 0.0, 0.12243403123305606, 0.12388160401746397, 0.11750957246221976, 0.14956926804455314, 0.04258733304286965, 0.013786347252694274, 0.0, 0.0, 0.0, 0.024661444972504682, 0.04514092117326597, 0.03590922736541325, 1.0, 1.0, 1.0, 1.0, 1.0, 1.0, 1.0, 1.0], 
          "name": "|Lucy01|GlobalControl01|Joints|bn_spine_a01"
        }, 
        {
          "index": 2, 
          "weights": [0.03339688969076355, 0.02231591976063855, 0.41709983662877814, 0.41709986531915677, 0.41709975048505976, 0.2308607905314155, 0.2222116507197976, 0.41709987632871987, 0.4170998763022224, 0.41709987632271955, 0.4170998763292713, 0.004101613069784352, 0.0009428696524335356, 0.000328045459691599, 0.00024089972442622437, 0.0001656272349174471, 0.0010818002185907464, 0.005827856947727297, 0.013940499390077249, 0.09825907446051743, 0.04598184742767969, 0.02471536320430661, 0.06997496082920117, 0.009173279793001393, 0.005272380201331078, 0.02006656953014152, 0.007098553970913135, 0.0, 0.0, 0.0, 0.0, 0.0, 0.0, 0.0, 0.0, 0.0, 0.0, 0.0, 0.0, 0.0, 0.0, 0.0, 0.0, 0.0, 0.0, 0.0, 0.0, 0.0, 0.0, 0.0, 0.0, 0.0, 0.0, 0.0, 0.0, 0.0, 0.0, 0.0, 0.0, 0.004322067016973198, 0.0, 0.0, 0.02168755233799985, 0.0, 0.001006734490108816, 0.0, 0.0003344541931587345, 0.0, 0.00023485528973505768, 0.00016396615289984687, 0.0, 0.0, 0.0010893073015475945, 0.0, 0.005868764598267262, 0.0, 0.013757767398181856, 0.0, 0.03239511372779176, 0.41709987627394257, 0.0, 0.0, 0.0, 0.0, 0.0, 0.0, 0.0, 0.0, 0.0, 0.0, 0.03855812267640895, 0.0, 0.0, 0.03714477162027456, 0.0, 0.045102038581388317, 0.0, 0.04667541749134708, 0.05156030490124605, 0.0, 0.0, 0.05104335157659576, 0.0, 0.056176542969057684, 0.0, 0.05083222805947962, 0.05310338990022812, 0.05847844860945665, 0.4865190328079235, 0.40104731513595854, 0.03787076487081539, 0.04064692797782592, 0.4195337529280748, 0.5211857622270077, 0.04757661860254784, 0.5897728249718625, 0.04841120750829362, 0.5380247298926617, 0.05284058415598711, 0.5390867358450935, 0.05336594194397083, 0.5378261079529914, 0.752066352822111, 0.8751271793380277, 0.8904939406699955, 0.7772079936229046, 1.0, 1.0, 1.0, 1.0, 1.0, 1.0, 1.0, 1.0, 0.9847566560888739, 1.0, 1.0, 1.0, 0.6873573033624432, 1.0, 1.0, 1.0, 0.8730279102928347, 0.8630608961749233, 0.8487989609167936, 0.7209100981510747, 0.8334550561806959, 0.763711804574666, 1.0, 1.0, 1.0, 0.9744244702896644, 0.9381373115585977, 0.9248744857823312, 0.0, 0.0, 0.0, 0.0, 0.0, 0.0, 0.0, 0.0], 
          "name": "|Lucy01|GlobalControl01|Joints|bn_spine_a01|bn_L_Hib01"
        }, 
        {
          "index": 6, 
          "weights": [0.03689713692554648, 0.03250795885697919, 0.5829001633712219, 0.5829001346808432, 0.5829002495149402, 0.25720962901976935, 0.33067203986525395, 0.58290012367128, 0.5829001236977777, 0.5829001236772805, 0.5829001236707287, 0.04177297575207544, 0.03979164587174465, 0.039329019285582724, 0.04580268175427496, 0.03780648624530292, 0.04313759963305228, 0.057302943880930796, 0.0528940927298989, 0.40972312445405284, 0.47732610713142315, 0.52557316115875, 0.4801308274119209, 0.5634421689356536, 0.5370275013222727, 0.5449679650011994, 0.5667414215246345, 1.0, 1.0, 1.0, 1.0, 1.0, 1.0, 1.0, 1.0, 1.0, 1.0, 1.0, 1.0, 1.0, 1.0, 1.0, 1.0, 1.0, 1.0, 1.0, 1.0, 1.0, 1.0, 1.0, 1.0, 1.0, 1.0, 1.0, 1.0, 1.0, 1.0, 1.0, 1.0, 0.03994410567888568, 0.0, 0.0, 0.031048977030065435, 0.0, 0.03837198137526126, 0.0, 0.03791048859238891, 0.0, 0.04401031483443396, 0.03628340448093798, 0.0, 0.0, 0.04156972261618306, 0.0, 0.05505125457207615, 0.0, 0.050558565459045114, 0.0, 0.03568399310339938, 0.5829001237260574, 0.0, 0.0, 0.0, 0.0, 0.0, 0.0, 0.0, 0.0, 0.0, 0.0, 0.009157375826780584, 0.0, 0.0, 0.0014627954126402946, 0.0, 4.4822480089606984e-05, 0.0, 0.00014739721299099394, 0.0005245270350418938, 0.0, 0.0, 0.001475839336764714, 0.0, 0.0061845488482420085, 0.0, 0.015421017821975573, 0.01545654285310019, 0.006102021913718034, 0.04724503453760613, 0.10381960766948262, 0.00126570867383539, 0.009272740899804646, 0.10863638424085614, 0.039043768297579454, 4.406671331184501e-05, 0.0008451011491836794, 0.0001467473580034313, 0.0023885831741156265, 0.00140437393091346, 0.015521146088113242, 0.000515663662369576, 0.006425027837283177, 0.21640732052391978, 0.08224171011315651, 0.058459138587195036, 0.18193386056958322, 0.0, 0.0, 0.0, 0.0, 0.0, 0.0, 0.0, 0.0, 0.008662787112070799, 0.0, 0.0, 0.0, 0.23425871296970113, 0.0, 0.0, 0.0, 0.00453805847410938, 0.013057499807612675, 0.03369146662098651, 0.129520633804372, 0.12395761077643447, 0.22250184817263988, 0.0, 0.0, 0.0, 0.0009140847378309718, 0.01672176726813635, 0.03921628685225554, 0.0, 0.0, 0.0, 0.0, 0.0, 0.0, 0.0, 0.0], 
          "name": "|Lucy01|GlobalControl01|Joints|bn_spine_a01|bn_R_Hib01"
        }], 
      "dqWeights": []
    }, 
    {
      "opacity": 1.0, 
      "name": "Base Weights", 
      "enabled": true, 
      "mask": [], 
      "influences": [
        {
          "index": 0, 
          "weights": [1.0, 1.0, 1.0, 1.0, 1.0, 1.0, 1.0, 1.0, 1.0, 1.0, 1.0, 1.0, 1.0, 1.0, 1.0, 1.0, 1.0, 1.0, 1.0, 1.0, 1.0, 1.0, 1.0, 1.0, 1.0, 1.0, 1.0, 1.0, 1.0, 1.0, 1.0, 1.0, 1.0, 1.0, 1.0, 1.0, 1.0, 1.0, 1.0, 1.0, 1.0, 1.0, 1.0, 1.0, 1.0, 1.0, 1.0, 1.0, 1.0, 1.0, 1.0, 1.0, 1.0, 1.0, 1.0, 1.0, 1.0, 1.0, 1.0, 1.0, 1.0, 1.0, 1.0, 1.0, 1.0, 1.0, 1.0, 1.0, 1.0, 1.0, 1.0000000000000002, 1.0, 1.0, 1.0, 1.0, 1.0, 1.0, 1.0, 1.0, 1.0, 1.0, 1.0, 1.0, 1.0, 1.0, 1.0, 1.0, 1.0, 1.0, 1.0000000000000002, 1.0, 1.0, 1.0, 1.0, 1.0, 1.0, 1.0, 1.0, 1.0, 1.0000000000000002, 1.0, 1.0, 1.0, 1.0, 1.0, 1.0000000000000002, 1.0, 1.0, 1.0, 1.0, 1.0, 1.0, 1.0, 1.0, 1.0, 1.0, 1.0, 1.0, 1.0, 1.0, 1.0000000000000002, 1.0, 1.0, 1.0, 1.0, 1.0, 1.0, 1.0, 1.0, 1.0, 1.0, 1.0, 1.0, 1.0, 1.0, 1.0, 1.0, 1.0, 1.0, 1.0, 1.0, 1.0, 1.0, 1.0, 1.0, 1.0, 1.0, 1.0, 1.0, 1.0, 1.0, 1.0, 1.0, 1.0, 1.0, 1.0, 1.0, 1.0, 1.0, 1.0, 1.0, 1.0], 
          "name": "|Lucy01|GlobalControl01|Joints|bn_spine_a01"
        }], 
      "dqWeights": []
    }], 
  "influences": {
    "0": {
      "path": "|Lucy01|GlobalControl01|Joints|bn_spine_a01", 
      "pivot": [0.0, 12.500000000000004, 0.0], 
      "index": 0
    }, 
    "1": {
      "path": "|Lucy01|GlobalControl01|Joints|bn_spine_a01|bn_spine_b01", 
      "pivot": [8.326672684688658e-16, 13.75, 1.232595164407831e-31], 
      "index": 1
    }, 
    "2": {
      "path": "|Lucy01|GlobalControl01|Joints|bn_spine_a01|bn_L_Hib01", 
      "pivot": [1.6230575891373085, 10.899144896149966, -0.18896835802158282], 
      "index": 2
    }, 
    "3": {
      "path": "|Lucy01|GlobalControl01|Joints|bn_spine_a01|bn_L_Hib01|bn_L_Knee_a01", 
      "pivot": [1.664734488167593, 5.212047587925335, -0.011489877895611345], 
      "index": 3
    }, 
    "4": {
      "path": "|Lucy01|GlobalControl01|Joints|bn_spine_a01|bn_L_Hib01|bn_L_Knee_a01|bn_L_Knee_b01", 
      "pivot": [1.667601928545052, 4.820765778779462, 0.000720938453127493], 
      "index": 4
    }, 
    "6": {
      "path": "|Lucy01|GlobalControl01|Joints|bn_spine_a01|bn_R_Hib01", 
      "pivot": [-1.6230600000000002, 10.8991, -0.18896799999999947], 
      "index": 6
    }, 
    "7": {
      "path": "|Lucy01|GlobalControl01|Joints|bn_spine_a01|bn_R_Hib01|bn_R_Knee_a01", 
      "pivot": [-1.6647385295915595, 5.212046762889089, -0.011490418569651328], 
      "index": 7
    }, 
    "8": {
      "path": "|Lucy01|GlobalControl01|Joints|bn_spine_a01|bn_R_Hib01|bn_R_Knee_a01|bn_R_Knee_b01", 
      "pivot": [-1.6676054435393095, 4.820768971993467, 0.000720297364140041], 
      "index": 8
    }
  }, 
  "meshInfo": {
    "verts": [-0.004145020619034767, 11.74656867980957, 2.187859535217285, -0.004145006183534861, 11.919142723083496, -1.849656581878662, -0.004145006183534861, 4.848142147064209, 3.332230806350708, -0.004145006183534861, 4.810949802398682, -2.885479688644409, -0.004145006183534861, 4.85096549987793, 3.1045825481414795, -0.004145006183534861, 10.570759773254395, 2.426776885986328, -0.004145006183534861, 10.582050323486328, -2.038792371749878, -0.004145006183534861, 8.821172714233398, 2.7288873195648193, -0.004145006183534861, 8.861961364746094, -2.3005595207214355, -0.004145006183534861, 7.1713151931762695, 3.013037919998169, -0.004145006183534861, 7.189199447631836, -2.5598418712615967, -1.0442529916763306, 11.972039222717285, -1.6099066734313965, -1.7224769592285156, 12.0545072555542, -1.2313740253448486, -2.2581515312194824, 12.081412315368652, -0.6839750409126282, -2.5401875972747803, 12.098031997680664, 0.11714515089988708, -2.3957290649414062, 12.11021614074707, 0.8770566582679749, -1.9500057697296143, 12.090502738952637, 1.4314221143722534, -1.268183946609497, 11.970075607299805, 1.9317599534988403, -0.6571484804153442, 11.91200065612793, 2.055438280105591, -0.7337122559547424, 10.526448249816895, 2.3144876956939697, -1.3957619667053223, 10.475489616394043, 2.2211122512817383, -1.9223183393478394, 10.529701232910156, -1.3807671070098877, -1.096625566482544, 10.535602569580078, -1.8021447658538818, -2.5014703273773193, 10.556325912475586, -0.7571589946746826, -2.833671808242798, 10.58633804321289, 0.09151360392570496, -2.2598555088043213, 10.385316848754883, 1.5928394794464111, -2.6808292865753174, 10.482650756835938, 0.9693458676338196, -1.049936294555664, 5.431410312652588, 3.156223773956299, -0.9723818898200989, 5.434284210205078, 2.941725730895996, -1.8891888856887817, 4.8818359375, 2.927030324935913, -2.0409393310546875, 4.879058361053467, 3.1408379077911377, -2.582160234451294, 5.521487712860107, -2.0959932804107666, -2.3741512298583984, 5.523970603942871, -1.9176572561264038, -1.6587761640548706, 5.784252643585205, -2.4316718578338623, -1.7680829763412476, 5.781699180603027, -2.659320116043091, -3.5919954776763916, 4.693115711212158, -1.1660783290863037, -3.3242273330688477, 4.693911552429199, -1.0570794343948364, -4.0015387535095215, 5.442004203796387, -0.04745921492576599, -3.7032225131988525, 5.444085597991943, -0.022341245785355568, -3.1031060218811035, 5.435905933380127, 2.1596527099609375, -3.345182180404663, 5.43331241607666, 2.3615002632141113, -3.8230323791503906, 4.8839616775512695, 1.3011503219604492, -4.0982842445373535, 4.901319980621338, 1.345638394355774, -0.8355131149291992, 8.834817886352539, 2.600421667098999, -1.3540726900100708, 8.820305824279785, -2.147979497909546, -2.221327543258667, 8.829816818237305, -1.6283267736434937, -2.847585916519165, 8.857648849487305, -0.8861507773399353, -3.198648691177368, 8.857175827026367, 0.06377919763326645, -3.086129903793335, 8.880685806274414, 1.078931450843811, -2.598226308822632, 8.826040267944336, 1.7702476978302002, -1.5916831493377686, 8.8386812210083, 2.4983246326446533, -0.9434797167778015, 7.17678165435791, 2.8630943298339844, -1.7967000007629395, 7.166769981384277, 2.8161046504974365, -1.5598903894424438, 7.172954082489014, -2.400815725326538, -2.513003349304199, 7.182359218597412, -1.8638298511505127, -3.2363598346710205, 7.207668781280518, -1.044918179512024, -3.6141953468322754, 7.191789627075195, -0.0037118010222911835, -3.523550271987915, 7.209876537322998, 1.1726959943771362, -2.9683732986450195, 7.164513111114502, 2.0015714168548584, -1.053149700164795, 11.980624198913574, -1.6379752159118652, -0.9003159999847412, 13.024812698364258, -1.3632290363311768, -0.004145006183534861, 13.027302742004395, -1.4221593141555786, -0.004145006183534861, 11.929625511169434, -1.8785275220870972, -1.5847055912017822, 13.066009521484375, -1.0636916160583496, -1.7407585382461548, 12.061338424682617, -1.254654049873352, -1.9704227447509766, 13.083239555358887, -0.5186735987663269, -2.2840046882629395, 12.089509963989258, -0.6978714466094971, -2.1467244625091553, 13.063852310180664, 0.1528034657239914, -2.5693166255950928, 12.106464385986328, 0.11477772146463394, -2.4229509830474854, 12.116353988647461, 0.888129711151123, -2.1304402351379395, 13.039872169494629, 0.8774102330207825, -1.792488932609558, 12.98808765411377, 1.346252202987671, -1.971767783164978, 12.095129013061523, 1.452696681022644, -1.150417447090149, 13.014250755310059, 1.8399367332458496, -1.2801183462142944, 11.974221229553223, 1.9590600728988647, -0.5997951626777649, 13.004181861877441, 1.9601190090179443, -0.661806583404541, 11.915401458740234, 2.0859429836273193, -0.004145006183534861, 12.999774932861328, 2.0311532020568848, -0.004145006183534861, 11.749701499938965, 2.2184362411499023, -0.004145006183534861, 4.810949802398682, -2.6793994903564453, -0.6477702856063843, 11.396747589111328, 1.13748300075531, -0.3353872299194336, 11.584989547729492, 1.1424912214279175, -0.004145006183534861, 11.386232376098633, 1.1979835033416748, -0.5692635774612427, 11.704217910766602, -0.6883883476257324, -0.813014030456543, 11.615533828735352, -0.5132514238357544, -1.1367347240447998, 11.332723617553711, -0.22002559900283813, -1.2658710479736328, 11.588326454162598, 0.13254278898239136, -1.0613911151885986, 11.585546493530273, 0.8760173320770264, -1.3066949844360352, 11.397466659545898, 0.5834972262382507, -0.004145006183534861, 11.37259578704834, -0.7728004455566406, 1.0448596477508545, 11.980624198913574, -1.6379752159118652, 0.8920260071754456, 13.024812698364258, -1.3632290363311768, 1.5764155387878418, 13.066009521484375, -1.0636916160583496, 1.7324684858322144, 12.061338424682617, -1.254654049873352, 1.9621326923370361, 13.083239555358887, -0.5186735987663269, 2.275714635848999, 12.089509963989258, -0.6978714466094971, 2.138434410095215, 13.063852310180664, 0.1528034657239914, 2.5610265731811523, 12.106464385986328, 0.11477772146463394, 2.414660930633545, 12.116353988647461, 0.888129711151123, 2.122150182723999, 13.039872169494629, 0.8774102330207825, 1.7841988801956177, 12.98808765411377, 1.346252202987671, 1.9634777307510376, 12.095129013061523, 1.452696681022644, 1.1421273946762085, 13.014250755310059, 1.8399367332458496, 1.271828293800354, 11.974221229553223, 1.9590600728988647, 0.5915051698684692, 13.004181861877441, 1.9601190090179443, 0.6535165905952454, 11.915401458740234, 2.0859429836273193, 0.6488584876060486, 11.91200065612793, 2.055438280105591, 1.2598938941955566, 11.970075607299805, 1.9317599534988403, 1.3874719142913818, 10.475489616394043, 2.2211122512817383, 0.7254222631454468, 10.526448249816895, 2.3144876956939697, 1.7141869068145752, 12.0545072555542, -1.2313740253448486, 1.0359629392623901, 11.972039222717285, -1.6099066734313965, 1.0883355140686035, 10.535602569580078, -1.8021447658538818, 1.914028286933899, 10.529701232910156, -1.3807671070098877, 2.249861478805542, 12.081412315368652, -0.6839750409126282, 2.493180274963379, 10.556325912475586, -0.7571589946746826, 2.53189754486084, 12.098031997680664, 0.11714515089988708, 2.8253817558288574, 10.58633804321289, 0.09151360392570496, 1.9417157173156738, 12.090502738952637, 1.4314221143722534, 2.251565456390381, 10.385316848754883, 1.5928394794464111, 2.387439012527466, 12.11021614074707, 0.8770566582679749, 2.672539234161377, 10.482650756835938, 0.9693458676338196, 1.0416462421417236, 5.431410312652588, 3.156223773956299, 2.032649278640747, 4.879058361053467, 3.1408379077911377, 1.8808988332748413, 4.8818359375, 2.927030324935913, 0.9640918970108032, 5.434284210205078, 2.941725730895996, 2.5738701820373535, 5.521487712860107, -2.0959932804107666, 1.7597929239273071, 5.781699180603027, -2.659320116043091, 1.6504861116409302, 5.784252643585205, -2.4316718578338623, 2.365861177444458, 5.523970603942871, -1.9176572561264038, 3.583705425262451, 4.693115711212158, -1.1660783290863037, 3.3159372806549072, 4.693911552429199, -1.0570794343948364, 3.993248701095581, 5.442004203796387, -0.04745921492576599, 3.694932460784912, 5.444085597991943, -0.022341245785355568, 3.3368921279907227, 5.43331241607666, 2.3615002632141113, 3.094815969467163, 5.435905933380127, 2.1596527099609375, 4.089994430541992, 4.901319980621338, 1.345638394355774, 3.81474232673645, 4.8839616775512695, 1.3011503219604492, 0.8272231221199036, 8.834817886352539, 2.600421667098999, 1.3457826375961304, 8.820305824279785, -2.147979497909546, 2.2130374908447266, 8.829816818237305, -1.6283267736434937, 2.8392958641052246, 8.857648849487305, -0.8861507773399353, 3.1903586387634277, 8.857175827026367, 0.06377919763326645, 3.0778398513793945, 8.880685806274414, 1.078931450843811, 2.5899362564086914, 8.826040267944336, 1.7702476978302002, 1.5833930969238281, 8.8386812210083, 2.4983246326446533, 1.788409948348999, 7.166769981384277, 2.8161046504974365, 0.9351897239685059, 7.17678165435791, 2.8630943298339844, 1.5516003370285034, 7.172954082489014, -2.400815725326538, 2.504713296890259, 7.182359218597412, -1.8638298511505127, 3.22806978225708, 7.207668781280518, -1.044918179512024, 3.605905294418335, 7.191789627075195, -0.0037118010222911835, 3.5152602195739746, 7.209876537322998, 1.1726959943771362, 2.960083246231079, 7.164513111114502, 2.0015714168548584, 0.6394802927970886, 11.396747589111328, 1.13748300075531, 0.32709720730781555, 11.584989547729492, 1.1424912214279175, 0.560973584651947, 11.704217910766602, -0.6883883476257324, 0.8047240376472473, 11.615533828735352, -0.5132514238357544, 1.1284446716308594, 11.332723617553711, -0.22002559900283813, 1.2575809955596924, 11.588326454162598, 0.13254278898239136, 1.0531010627746582, 11.585546493530273, 0.8760173320770264, 1.2984049320220947, 11.397466659545898, 0.5834972262382507], 
    "triangles": [60, 61, 59, 59, 61, 62, 63, 60, 64, 64, 60, 59, 65, 63, 66, 66, 63, 64, 65, 66, 67, 67, 66, 68, 70, 67, 69, 69, 67, 68, 71, 70, 72, 72, 70, 69, 73, 71, 74, 74, 71, 72, 75, 73, 76, 76, 73, 74, 18, 17, 19, 19, 17, 20, 18, 19, 0, 0, 19, 5, 12, 11, 21, 21, 11, 22, 6, 22, 1, 1, 22, 11, 12, 21, 13, 13, 21, 23, 13, 23, 14, 14, 23, 24, 17, 16, 20, 20, 16, 25, 15, 26, 16, 16, 26, 25, 26, 15, 24, 24, 15, 14, 30, 29, 27, 27, 29, 28, 2, 27, 4, 4, 27, 28, 31, 34, 32, 32, 34, 33, 35, 31, 36, 36, 31, 32, 37, 35, 38, 38, 35, 36, 40, 39, 30, 30, 39, 29, 42, 41, 40, 40, 41, 39, 42, 37, 41, 41, 37, 38, 5, 19, 7, 7, 19, 43, 44, 22, 8, 8, 22, 6, 22, 44, 21, 21, 44, 45, 21, 45, 23, 23, 45, 46, 23, 46, 24, 24, 46, 47, 48, 26, 47, 47, 26, 24, 26, 48, 25, 25, 48, 49, 20, 25, 50, 50, 25, 49, 19, 20, 43, 43, 20, 50, 43, 50, 51, 51, 50, 52, 43, 51, 7, 7, 51, 9, 53, 44, 10, 10, 44, 8, 44, 53, 45, 45, 53, 54, 45, 54, 46, 46, 54, 55, 46, 55, 47, 47, 55, 56, 56, 57, 47, 47, 57, 48, 49, 48, 58, 58, 48, 57, 50, 49, 52, 52, 49, 58, 51, 52, 27, 27, 52, 30, 51, 27, 9, 9, 27, 2, 3, 34, 10, 10, 34, 53, 53, 34, 54, 54, 34, 31, 54, 31, 55, 55, 31, 35, 56, 55, 37, 37, 55, 35, 42, 57, 37, 37, 57, 56, 58, 57, 40, 40, 57, 42, 58, 40, 52, 52, 40, 30, 75, 76, 77, 77, 76, 78, 34, 3, 33, 33, 3, 79, 29, 80, 28, 28, 80, 81, 4, 28, 82, 82, 28, 81, 32, 33, 84, 84, 33, 83, 36, 32, 85, 85, 32, 84, 36, 85, 38, 38, 85, 86, 29, 39, 80, 80, 39, 87, 41, 88, 39, 39, 88, 87, 41, 38, 88, 88, 38, 86, 79, 89, 33, 33, 89, 83, 62, 61, 90, 90, 61, 91, 92, 93, 91, 91, 93, 90, 94, 95, 92, 92, 95, 93, 97, 95, 96, 96, 95, 94, 97, 96, 98, 98, 96, 99, 100, 101, 99, 99, 101, 98, 102, 103, 100, 100, 103, 101, 104, 105, 102, 102, 105, 103, 106, 109, 107, 107, 109, 108, 5, 109, 0, 0, 109, 106, 110, 113, 111, 111, 113, 112, 6, 1, 112, 112, 1, 111, 115, 113, 114, 114, 113, 110, 117, 115, 116, 116, 115, 114, 107, 108, 118, 118, 108, 119, 119, 121, 118, 118, 121, 120, 116, 120, 117, 117, 120, 121, 125, 124, 122, 122, 124, 123, 2, 4, 122, 122, 4, 125, 126, 129, 127, 127, 129, 128, 130, 131, 126, 126, 131, 129, 132, 133, 130, 130, 133, 131, 124, 135, 123, 123, 135, 134, 135, 137, 134, 134, 137, 136, 136, 137, 132, 132, 137, 133, 5, 7, 109, 109, 7, 138, 6, 112, 8, 8, 112, 139, 140, 139, 113, 113, 139, 112, 141, 140, 115, 115, 140, 113, 142, 141, 117, 117, 141, 115, 117, 121, 142, 142, 121, 143, 144, 143, 119, 119, 143, 121, 108, 145, 119, 119, 145, 144, 109, 138, 108, 108, 138, 145, 138, 147, 145, 145, 147, 146, 9, 147, 7, 7, 147, 138, 8, 139, 10, 10, 139, 148, 149, 148, 140, 140, 148, 139, 150, 149, 141, 141, 149, 140, 151, 150, 142, 142, 150, 141, 151, 142, 152, 152, 142, 143, 144, 153, 143, 143, 153, 152, 145, 146, 144, 144, 146, 153, 147, 122, 146, 146, 122, 123, 2, 122, 9, 9, 122, 147, 3, 10, 127, 127, 10, 148, 126, 127, 149, 149, 127, 148, 130, 126, 150, 150, 126, 149, 151, 132, 150, 150, 132, 130, 151, 152, 132, 132, 152, 136, 153, 134, 152, 152, 134, 136, 123, 134, 146, 146, 134, 153, 78, 105, 77, 77, 105, 104, 127, 128, 3, 3, 128, 79, 155, 154, 125, 125, 154, 124, 4, 82, 125, 125, 82, 155, 129, 157, 128, 128, 157, 156, 131, 158, 129, 129, 158, 157, 159, 158, 133, 133, 158, 131, 124, 154, 135, 135, 154, 160, 160, 161, 135, 135, 161, 137, 137, 161, 133, 133, 161, 159, 156, 89, 128, 128, 89, 79, 62, 1, 59, 59, 1, 11, 64, 59, 12, 12, 59, 11, 66, 64, 13, 13, 64, 12, 68, 66, 14, 14, 66, 13, 68, 14, 69, 69, 14, 15, 69, 15, 72, 72, 15, 16, 74, 72, 17, 17, 72, 16, 74, 17, 76, 76, 17, 18, 78, 76, 0, 0, 76, 18, 62, 90, 1, 1, 90, 111, 90, 93, 111, 111, 93, 110, 95, 114, 93, 93, 114, 110, 97, 116, 95, 95, 116, 114, 97, 98, 116, 116, 98, 120, 98, 101, 120, 120, 101, 118, 101, 103, 118, 118, 103, 107, 103, 105, 107, 107, 105, 106, 78, 0, 105, 105, 0, 106]
  }
}